digraph Tree {
node [shape=box] ;
0 [label="Sex <= 0.5\ngini = 0.472\nsamples = 889\nvalue = [549, 340]"] ;
1 [label="Pclass <= 2.5\ngini = 0.384\nsamples = 312\nvalue = [81, 231]"] ;
0 -> 1 [labeldistance=2.5, labelangle=45, headlabel="True"] ;
2 [label="Age <= 2.5\ngini = 0.101\nsamples = 168\nvalue = [9, 159]"] ;
1 -> 2 ;
3 [label="Fare <= 88.775\ngini = 0.5\nsamples = 2\nvalue = [1, 1]"] ;
2 -> 3 ;
4 [label="gini = 0.0\nsamples = 1\nvalue = [0, 1]"] ;
3 -> 4 ;
5 [label="gini = 0.0\nsamples = 1\nvalue = [1, 0]"] ;
3 -> 5 ;
6 [label="Fare <= 28.856\ngini = 0.092\nsamples = 166\nvalue = [8, 158]"] ;
2 -> 6 ;
7 [label="Fare <= 28.231\ngini = 0.182\nsamples = 69\nvalue = [7, 62]"] ;
6 -> 7 ;
8 [label="Age <= 56.0\ngini = 0.161\nsamples = 68\nvalue = [6, 62]"] ;
7 -> 8 ;
9 [label="gini = 0.14\nsamples = 66\nvalue = [5, 61]"] ;
8 -> 9 ;
10 [label="gini = 0.5\nsamples = 2\nvalue = [1, 1]"] ;
8 -> 10 ;
11 [label="gini = 0.0\nsamples = 1\nvalue = [1, 0]"] ;
7 -> 11 ;
12 [label="Fare <= 149.035\ngini = 0.02\nsamples = 97\nvalue = [1, 96]"] ;
6 -> 12 ;
13 [label="gini = 0.0\nsamples = 79\nvalue = [0, 79]"] ;
12 -> 13 ;
14 [label="Fare <= 152.506\ngini = 0.105\nsamples = 18\nvalue = [1, 17]"] ;
12 -> 14 ;
15 [label="gini = 0.5\nsamples = 2\nvalue = [1, 1]"] ;
14 -> 15 ;
16 [label="gini = 0.0\nsamples = 16\nvalue = [0, 16]"] ;
14 -> 16 ;
17 [label="Fare <= 23.35\ngini = 0.5\nsamples = 144\nvalue = [72, 72]"] ;
1 -> 17 ;
18 [label="Fare <= 7.888\ngini = 0.484\nsamples = 117\nvalue = [48, 69]"] ;
17 -> 18 ;
19 [label="Fare <= 6.987\ngini = 0.408\nsamples = 42\nvalue = [12, 30]"] ;
18 -> 19 ;
20 [label="gini = 0.0\nsamples = 1\nvalue = [1, 0]"] ;
19 -> 20 ;
21 [label="Fare <= 7.523\ngini = 0.393\nsamples = 41\nvalue = [11, 30]"] ;
19 -> 21 ;
22 [label="gini = 0.0\nsamples = 6\nvalue = [0, 6]"] ;
21 -> 22 ;
23 [label="gini = 0.431\nsamples = 35\nvalue = [11, 24]"] ;
21 -> 23 ;
24 [label="Fare <= 15.373\ngini = 0.499\nsamples = 75\nvalue = [36, 39]"] ;
18 -> 24 ;
25 [label="Age <= 19.0\ngini = 0.48\nsamples = 45\nvalue = [27, 18]"] ;
24 -> 25 ;
26 [label="gini = 0.444\nsamples = 15\nvalue = [5, 10]"] ;
25 -> 26 ;
27 [label="gini = 0.391\nsamples = 30\nvalue = [22, 8]"] ;
25 -> 27 ;
28 [label="Age <= 43.0\ngini = 0.42\nsamples = 30\nvalue = [9, 21]"] ;
24 -> 28 ;
29 [label="gini = 0.483\nsamples = 22\nvalue = [9, 13]"] ;
28 -> 29 ;
30 [label="gini = 0.0\nsamples = 8\nvalue = [0, 8]"] ;
28 -> 30 ;
31 [label="Age <= 5.5\ngini = 0.198\nsamples = 27\nvalue = [24, 3]"] ;
17 -> 31 ;
32 [label="Fare <= 31.331\ngini = 0.444\nsamples = 3\nvalue = [2, 1]"] ;
31 -> 32 ;
33 [label="gini = 0.0\nsamples = 2\nvalue = [2, 0]"] ;
32 -> 33 ;
34 [label="gini = 0.0\nsamples = 1\nvalue = [0, 1]"] ;
32 -> 34 ;
35 [label="Fare <= 24.808\ngini = 0.153\nsamples = 24\nvalue = [22, 2]"] ;
31 -> 35 ;
36 [label="Age <= 37.5\ngini = 0.375\nsamples = 4\nvalue = [3, 1]"] ;
35 -> 36 ;
37 [label="gini = 0.0\nsamples = 2\nvalue = [2, 0]"] ;
36 -> 37 ;
38 [label="gini = 0.5\nsamples = 2\nvalue = [1, 1]"] ;
36 -> 38 ;
39 [label="Age <= 38.5\ngini = 0.095\nsamples = 20\nvalue = [19, 1]"] ;
35 -> 39 ;
40 [label="gini = 0.219\nsamples = 8\nvalue = [7, 1]"] ;
39 -> 40 ;
41 [label="gini = 0.0\nsamples = 12\nvalue = [12, 0]"] ;
39 -> 41 ;
42 [label="Age <= 6.5\ngini = 0.306\nsamples = 577\nvalue = [468, 109]"] ;
0 -> 42 [labeldistance=2.5, labelangle=-45, headlabel="False"] ;
43 [label="Pclass <= 2.5\ngini = 0.444\nsamples = 24\nvalue = [8, 16]"] ;
42 -> 43 ;
44 [label="gini = 0.0\nsamples = 10\nvalue = [0, 10]"] ;
43 -> 44 ;
45 [label="Fare <= 20.825\ngini = 0.49\nsamples = 14\nvalue = [8, 6]"] ;
43 -> 45 ;
46 [label="gini = 0.0\nsamples = 5\nvalue = [0, 5]"] ;
45 -> 46 ;
47 [label="Age <= 2.5\ngini = 0.198\nsamples = 9\nvalue = [8, 1]"] ;
45 -> 47 ;
48 [label="gini = 0.0\nsamples = 5\nvalue = [5, 0]"] ;
47 -> 48 ;
49 [label="Fare <= 31.331\ngini = 0.375\nsamples = 4\nvalue = [3, 1]"] ;
47 -> 49 ;
50 [label="gini = 0.0\nsamples = 3\nvalue = [3, 0]"] ;
49 -> 50 ;
51 [label="gini = 0.0\nsamples = 1\nvalue = [0, 1]"] ;
49 -> 51 ;
52 [label="Pclass <= 1.5\ngini = 0.28\nsamples = 553\nvalue = [460, 93]"] ;
42 -> 52 ;
53 [label="Age <= 36.5\ngini = 0.46\nsamples = 120\nvalue = [77, 43]"] ;
52 -> 53 ;
54 [label="Fare <= 37.812\ngini = 0.497\nsamples = 39\nvalue = [18, 21]"] ;
53 -> 54 ;
55 [label="Fare <= 15.644\ngini = 0.355\nsamples = 13\nvalue = [3, 10]"] ;
54 -> 55 ;
56 [label="gini = 0.0\nsamples = 1\nvalue = [1, 0]"] ;
55 -> 56 ;
57 [label="gini = 0.278\nsamples = 12\nvalue = [2, 10]"] ;
55 -> 57 ;
58 [label="Fare <= 52.55\ngini = 0.488\nsamples = 26\nvalue = [15, 11]"] ;
54 -> 58 ;
59 [label="gini = 0.0\nsamples = 4\nvalue = [4, 0]"] ;
58 -> 59 ;
60 [label="gini = 0.5\nsamples = 22\nvalue = [11, 11]"] ;
58 -> 60 ;
61 [label="Fare <= 26.144\ngini = 0.396\nsamples = 81\nvalue = [59, 22]"] ;
53 -> 61 ;
62 [label="gini = 0.0\nsamples = 9\nvalue = [9, 0]"] ;
61 -> 62 ;
63 [label="Age <= 53.0\ngini = 0.424\nsamples = 72\nvalue = [50, 22]"] ;
61 -> 63 ;
64 [label="gini = 0.468\nsamples = 51\nvalue = [32, 19]"] ;
63 -> 64 ;
65 [label="gini = 0.245\nsamples = 21\nvalue = [18, 3]"] ;
63 -> 65 ;
66 [label="Fare <= 51.698\ngini = 0.204\nsamples = 433\nvalue = [383, 50]"] ;
52 -> 66 ;
67 [label="Age <= 13.0\ngini = 0.193\nsamples = 417\nvalue = [372, 45]"] ;
66 -> 67 ;
68 [label="Fare <= 17.344\ngini = 0.444\nsamples = 12\nvalue = [8, 4]"] ;
67 -> 68 ;
69 [label="gini = 0.0\nsamples = 2\nvalue = [0, 2]"] ;
68 -> 69 ;
70 [label="gini = 0.32\nsamples = 10\nvalue = [8, 2]"] ;
68 -> 70 ;
71 [label="Age <= 32.25\ngini = 0.182\nsamples = 405\nvalue = [364, 41]"] ;
67 -> 71 ;
72 [label="gini = 0.222\nsamples = 204\nvalue = [178, 26]"] ;
71 -> 72 ;
73 [label="gini = 0.138\nsamples = 201\nvalue = [186, 15]"] ;
71 -> 73 ;
74 [label="Fare <= 63.023\ngini = 0.43\nsamples = 16\nvalue = [11, 5]"] ;
66 -> 74 ;
75 [label="Age <= 30.0\ngini = 0.408\nsamples = 7\nvalue = [2, 5]"] ;
74 -> 75 ;
76 [label="gini = 0.5\nsamples = 2\nvalue = [1, 1]"] ;
75 -> 76 ;
77 [label="gini = 0.32\nsamples = 5\nvalue = [1, 4]"] ;
75 -> 77 ;
78 [label="gini = 0.0\nsamples = 9\nvalue = [9, 0]"] ;
74 -> 78 ;
}