digraph Tree {
node [shape=box] ;
0 [label="Sex <= 0.5\ngini = 0.472\nsamples = 889\nvalue = [549, 340]"] ;
1 [label="Fare <= 48.5\ngini = 0.384\nsamples = 312\nvalue = [81, 231]"] ;
0 -> 1 [labeldistance=2.5, labelangle=45, headlabel="True"] ;
5 [label="Fare <= 44.5\ngini = 0.447\nsamples = 225\nvalue = [76, 149]"] ;
1 -> 5 ;
17 [label="gini = 0.443\nsamples = 223\nvalue = [74, 149]"] ;
5 -> 17 ;
18 [label="gini = 0.0\nsamples = 2\nvalue = [2, 0]"] ;
5 -> 18 ;
6 [label="Age <= 8.0\ngini = 0.108\nsamples = 87\nvalue = [5, 82]"] ;
1 -> 6 ;
15 [label="gini = 0.0\nsamples = 1\nvalue = [1, 0]"] ;
6 -> 15 ;
16 [label="gini = 0.089\nsamples = 86\nvalue = [4, 82]"] ;
6 -> 16 ;
2 [label="Age <= 6.5\ngini = 0.306\nsamples = 577\nvalue = [468, 109]"] ;
0 -> 2 [labeldistance=2.5, labelangle=-45, headlabel="False"] ;
3 [label="Fare <= 27.0\ngini = 0.444\nsamples = 24\nvalue = [8, 16]"] ;
2 -> 3 ;
11 [label="gini = 0.165\nsamples = 11\nvalue = [1, 10]"] ;
3 -> 11 ;
12 [label="gini = 0.497\nsamples = 13\nvalue = [7, 6]"] ;
3 -> 12 ;
4 [label="Fare <= 25.5\ngini = 0.28\nsamples = 553\nvalue = [460, 93]"] ;
2 -> 4 ;
7 [label="Age <= 13.5\ngini = 0.198\nsamples = 385\nvalue = [342, 43]"] ;
4 -> 7 ;
9 [label="gini = 0.375\nsamples = 4\nvalue = [1, 3]"] ;
7 -> 9 ;
10 [label="gini = 0.188\nsamples = 381\nvalue = [341, 40]"] ;
7 -> 10 ;
8 [label="Fare <= 387.5\ngini = 0.418\nsamples = 168\nvalue = [118, 50]"] ;
4 -> 8 ;
13 [label="Age <= 53.0\ngini = 0.411\nsamples = 166\nvalue = [118, 48]"] ;
8 -> 13 ;
19 [label="Age <= 47.5\ngini = 0.435\nsamples = 141\nvalue = [96, 45]"] ;
13 -> 19 ;
21 [label="gini = 0.411\nsamples = 128\nvalue = [91, 37]"] ;
19 -> 21 ;
22 [label="gini = 0.473\nsamples = 13\nvalue = [5, 8]"] ;
19 -> 22 ;
20 [label="gini = 0.211\nsamples = 25\nvalue = [22, 3]"] ;
13 -> 20 ;
14 [label="gini = 0.0\nsamples = 2\nvalue = [0, 2]"] ;
8 -> 14 ;
}