digraph Tree {
node [shape=box] ;
0 [label="TotalWorkingYears <= 1.5\ngini = 0.27\nsamples = 1470\nvalue = [1233, 237]"] ;
1 [label="Age <= 33.5\ngini = 0.5\nsamples = 92\nvalue = [47, 45]"] ;
0 -> 1 [labeldistance=2.5, labelangle=45, headlabel="True"] ;
5 [label="MonthlyIncome <= 112610.0\ngini = 0.495\nsamples = 80\nvalue = [36, 44]"] ;
1 -> 5 ;
7 [label="MonthlyIncome <= 23140.0\ngini = 0.472\nsamples = 68\nvalue = [26, 42]"] ;
5 -> 7 ;
9 [label="gini = 0.245\nsamples = 7\nvalue = [6, 1]"] ;
7 -> 9 ;
10 [label="Age <= 23.5\ngini = 0.441\nsamples = 61\nvalue = [20, 41]"] ;
7 -> 10 ;
13 [label="Age <= 18.5\ngini = 0.269\nsamples = 25\nvalue = [4, 21]"] ;
10 -> 13 ;
19 [label="gini = 0.49\nsamples = 7\nvalue = [3, 4]"] ;
13 -> 19 ;
20 [label="gini = 0.105\nsamples = 18\nvalue = [1, 17]"] ;
13 -> 20 ;
14 [label="MonthlyIncome <= 32530.0\ngini = 0.494\nsamples = 36\nvalue = [16, 20]"] ;
10 -> 14 ;
15 [label="gini = 0.278\nsamples = 12\nvalue = [2, 10]"] ;
14 -> 15 ;
16 [label="gini = 0.486\nsamples = 24\nvalue = [14, 10]"] ;
14 -> 16 ;
8 [label="gini = 0.278\nsamples = 12\nvalue = [10, 2]"] ;
5 -> 8 ;
6 [label="gini = 0.153\nsamples = 12\nvalue = [11, 1]"] ;
1 -> 6 ;
2 [label="Age <= 33.5\ngini = 0.24\nsamples = 1378\nvalue = [1186, 192]"] ;
0 -> 2 [labeldistance=2.5, labelangle=-45, headlabel="False"] ;
3 [label="gini = 0.316\nsamples = 494\nvalue = [397, 97]"] ;
2 -> 3 ;
4 [label="TotalWorkingYears <= 39.0\ngini = 0.192\nsamples = 884\nvalue = [789, 95]"] ;
2 -> 4 ;
11 [label="MonthlyIncome <= 10300.0\ngini = 0.189\nsamples = 882\nvalue = [789, 93]"] ;
4 -> 11 ;
17 [label="gini = 0.0\nsamples = 1\nvalue = [0, 1]"] ;
11 -> 17 ;
18 [label="TotalWorkingYears <= 5.5\ngini = 0.187\nsamples = 881\nvalue = [789, 92]"] ;
11 -> 18 ;
21 [label="gini = 0.313\nsamples = 67\nvalue = [54, 13]"] ;
18 -> 21 ;
22 [label="gini = 0.175\nsamples = 814\nvalue = [735, 79]"] ;
18 -> 22 ;
12 [label="gini = 0.0\nsamples = 2\nvalue = [0, 2]"] ;
4 -> 12 ;
}